<?xml version="1.0"?>
<opencv_storage>
<stage7>
  <maxWeakCount>93</maxWeakCount>
  <stageThreshold>-5.8112972974777222e-01</stageThreshold>
  <weakClassifiers>
    <_>
      <internalNodes>
        0 -1 60259 -4.8489235341548920e-03</internalNodes>
      <leafValues>
        -5.5102038383483887e-01 3.4967938065528870e-01</leafValues></_>
    <_>
      <internalNodes>
        0 -1 50667 -4.2172260582447052e-03</internalNodes>
      <leafValues>
        2.5010028481483459e-01 -5.7543721050024033e-02</leafValues></_>
    <_>
      <internalNodes>
        0 -1 10756 -3.4324303269386292e-03</internalNodes>
      <leafValues>
        1.6153031587600708e-01 -1.0762876272201538e-01</leafValues></_>
    <_>
      <internalNodes>
        0 -1 64966 -3.2073645852506161e-03</internalNodes>
      <leafValues>
        1.8528212606906891e-01 -1.0247664153575897e-01</leafValues></_>
    <_>
      <internalNodes>
        0 -1 67959 1.5817407984286547e-03</internalNodes>
      <leafValues>
        -1.2655185163021088e-01 2.1022976934909821e-01</leafValues></_>
    <_>
      <internalNodes>
        0 -1 50232 9.0226344764232635e-03</internalNodes>
      <leafValues>
        7.0781834423542023e-02 -3.1186714768409729e-01</leafValues></_>
    <_>
      <internalNodes>
        0 -1 78144 4.7344894846901298e-04</internalNodes>
      <leafValues>
        -1.2737724184989929e-01 1.2941707670688629e-01</leafValues></_>
    <_>
      <internalNodes>
        0 -1 71110 2.0794169977307320e-03</internalNodes>
      <leafValues>
        -9.3934237957000732e-02 1.8135197460651398e-01</leafValues></_>
    <_>
      <internalNodes>
        0 -1 11276 3.6352407187223434e-03</internalNodes>
      <leafValues>
        -8.6691997945308685e-02 1.7780348658561707e-01</leafValues></_>
    <_>
      <internalNodes>
        0 -1 37797 -4.5208245865069330e-05</internalNodes>
      <leafValues>
        1.3055327534675598e-01 -1.2304226309061050e-01</leafValues></_>
    <_>
      <internalNodes>
        0 -1 62249 -4.2949207127094269e-03</internalNodes>
      <leafValues>
        -5.9792023897171021e-01 2.8426574543118477e-02</leafValues></_>
    <_>
      <internalNodes>
        0 -1 58007 5.3448118269443512e-03</internalNodes>
      <leafValues>
        4.8061147332191467e-02 -2.9962721467018127e-01</leafValues></_>
    <_>
      <internalNodes>
        0 -1 67642 3.1521609053015709e-03</internalNodes>
      <leafValues>
        -8.9773565530776978e-02 1.6784508526325226e-01</leafValues></_>
    <_>
      <internalNodes>
        0 -1 38239 -6.8726949393749237e-03</internalNodes>
      <leafValues>
        3.5312953591346741e-01 -4.7765675932168961e-02</leafValues></_>
    <_>
      <internalNodes>
        0 -1 7160 -5.7213567197322845e-03</internalNodes>
      <leafValues>
        2.1330839395523071e-01 -6.9990016520023346e-02</leafValues></_>
    <_>
      <internalNodes>
        0 -1 57204 -9.9779479205608368e-03</internalNodes>
      <leafValues>
        -2.6820021867752075e-01 6.2502145767211914e-02</leafValues></_>
    <_>
      <internalNodes>
        0 -1 71611 5.5240441113710403e-02</internalNodes>
      <leafValues>
        -4.3662533164024353e-02 3.8508087396621704e-01</leafValues></_>
    <_>
      <internalNodes>
        0 -1 71556 -4.3741613626480103e-02</internalNodes>
      <leafValues>
        6.2025964260101318e-01 -2.3269390687346458e-02</leafValues></_>
    <_>
      <internalNodes>
        0 -1 77633 1.1265027336776257e-02</internalNodes>
      <leafValues>
        2.5961598381400108e-02 -6.7397975921630859e-01</leafValues></_>
    <_>
      <internalNodes>
        0 -1 74300 -2.3054752498865128e-02</internalNodes>
      <leafValues>
        5.8483058214187622e-01 -2.6959106326103210e-02</leafValues></_>
    <_>
      <internalNodes>
        0 -1 70614 -2.0777102559804916e-02</internalNodes>
      <leafValues>
        4.4113573431968689e-01 -2.9462065547704697e-02</leafValues></_>
    <_>
      <internalNodes>
        0 -1 73249 -9.6336603746749461e-05</internalNodes>
      <leafValues>
        -1.3652171194553375e-01 1.1265738308429718e-01</leafValues></_>
    <_>
      <internalNodes>
        0 -1 70448 -1.0730339214205742e-02</internalNodes>
      <leafValues>
        -5.7509416341781616e-01 2.6080872863531113e-02</leafValues></_>
    <_>
      <internalNodes>
        0 -1 69626 -2.9958956874907017e-03</internalNodes>
      <leafValues>
        1.4847539365291595e-01 -9.3922719359397888e-02</leafValues></_>
    <_>
      <internalNodes>
        0 -1 32334 -1.0804906487464905e-03</internalNodes>
      <leafValues>
        1.4404730498790741e-01 -9.7861744463443756e-02</leafValues></_>
    <_>
      <internalNodes>
        0 -1 19744 6.5474823117256165e-02</internalNodes>
      <leafValues>
        -2.8783170506358147e-02 4.9935522675514221e-01</leafValues></_>
    <_>
      <internalNodes>
        0 -1 69605 8.1652048975229263e-03</internalNodes>
      <leafValues>
        4.4327497482299805e-02 -3.6377045512199402e-01</leafValues></_>
    <_>
      <internalNodes>
        0 -1 52334 -5.9357434511184692e-03</internalNodes>
      <leafValues>
        -8.1071472167968750e-01 1.7835732549428940e-02</leafValues></_>
    <_>
      <internalNodes>
        0 -1 36282 5.7411110028624535e-03</internalNodes>
      <leafValues>
        -7.6105788350105286e-02 1.9223798811435699e-01</leafValues></_>
    <_>
      <internalNodes>
        0 -1 25515 -7.2835357859730721e-03</internalNodes>
      <leafValues>
        1.2758380174636841e-01 -1.1954963207244873e-01</leafValues></_>
    <_>
      <internalNodes>
        0 -1 54293 7.5470179319381714e-02</internalNodes>
      <leafValues>
        2.7232002466917038e-02 -6.1535924673080444e-01</leafValues></_>
    <_>
      <internalNodes>
        0 -1 39704 1.7527606338262558e-02</internalNodes>
      <leafValues>
        -4.7548741102218628e-02 3.4885779023170471e-01</leafValues></_>
    <_>
      <internalNodes>
        0 -1 34129 -5.0980402156710625e-03</internalNodes>
      <leafValues>
        -4.4022047519683838e-01 3.7642680108547211e-02</leafValues></_>
    <_>
      <internalNodes>
        0 -1 49827 -9.6835745498538017e-03</internalNodes>
      <leafValues>
        2.4076713621616364e-01 -6.4937919378280640e-02</leafValues></_>
    <_>
      <internalNodes>
        0 -1 44760 -3.8194015622138977e-02</internalNodes>
      <leafValues>
        -3.4333065152168274e-01 4.5520894229412079e-02</leafValues></_>
    <_>
      <internalNodes>
        0 -1 43385 1.6335956752300262e-02</internalNodes>
      <leafValues>
        4.2669951915740967e-02 -3.4244209527969360e-01</leafValues></_>
    <_>
      <internalNodes>
        0 -1 65536 -4.3768081814050674e-03</internalNodes>
      <leafValues>
        -5.7426226139068604e-01 2.7129260823130608e-02</leafValues></_>
    <_>
      <internalNodes>
        0 -1 74465 5.2227299660444260e-02</internalNodes>
      <leafValues>
        -2.0500874146819115e-02 7.3532885313034058e-01</leafValues></_>
    <_>
      <internalNodes>
        0 -1 68404 -1.5780597925186157e-02</internalNodes>
      <leafValues>
        2.4265141785144806e-01 -5.3901229053735733e-02</leafValues></_>
    <_>
      <internalNodes>
        0 -1 68344 -1.9422475015744567e-03</internalNodes>
      <leafValues>
        1.8346111476421356e-01 -7.6962918043136597e-02</leafValues></_>
    <_>
      <internalNodes>
        0 -1 72938 2.5767958723008633e-03</internalNodes>
      <leafValues>
        4.9642149358987808e-02 -3.0931869149208069e-01</leafValues></_>
    <_>
      <internalNodes>
        0 -1 57656 -5.2441842854022980e-03</internalNodes>
      <leafValues>
        -2.8951656818389893e-01 5.1244117319583893e-02</leafValues></_>
    <_>
      <internalNodes>
        0 -1 72544 1.0946801863610744e-02</internalNodes>
      <leafValues>
        2.9961865395307541e-02 -4.5617821812629700e-01</leafValues></_>
    <_>
      <internalNodes>
        0 -1 68283 3.6713718436658382e-03</internalNodes>
      <leafValues>
        -8.8750101625919342e-02 1.7561176419258118e-01</leafValues></_>
    <_>
      <internalNodes>
        0 -1 34067 -1.1247463990002871e-03</internalNodes>
      <leafValues>
        1.5470167994499207e-01 -9.2619046568870544e-02</leafValues></_>
    <_>
      <internalNodes>
        0 -1 1507 -9.1833751648664474e-03</internalNodes>
      <leafValues>
        1.9361174106597900e-01 -7.4276685714721680e-02</leafValues></_>
    <_>
      <internalNodes>
        0 -1 27661 6.1884894967079163e-03</internalNodes>
      <leafValues>
        3.1793538480997086e-02 -4.4359493255615234e-01</leafValues></_>
    <_>
      <internalNodes>
        0 -1 1140 -2.6461237668991089e-01</internalNodes>
      <leafValues>
        6.2747514247894287e-01 -2.3322833701968193e-02</leafValues></_>
    <_>
      <internalNodes>
        0 -1 39826 3.6934699863195419e-02</internalNodes>
      <leafValues>
        6.0561094433069229e-02 -2.5920146703720093e-01</leafValues></_>
    <_>
      <internalNodes>
        0 -1 72862 -9.9350279197096825e-03</internalNodes>
      <leafValues>
        2.6815560460090637e-01 -6.4665392041206360e-02</leafValues></_>
    <_>
      <internalNodes>
        0 -1 70348 5.9876423329114914e-03</internalNodes>
      <leafValues>
        -8.4472358226776123e-02 1.8612161278724670e-01</leafValues></_>
    <_>
      <internalNodes>
        0 -1 14440 -1.6471804119646549e-03</internalNodes>
      <leafValues>
        -1.4783029258251190e-01 1.0517164319753647e-01</leafValues></_>
    <_>
      <internalNodes>
        0 -1 70441 -1.2567241210490465e-03</internalNodes>
      <leafValues>
        1.8519753217697144e-01 -8.8383667171001434e-02</leafValues></_>
    <_>
      <internalNodes>
        0 -1 3355 -2.2241275757551193e-02</internalNodes>
      <leafValues>
        4.6850141882896423e-01 -3.1187070533633232e-02</leafValues></_>
    <_>
      <internalNodes>
        0 -1 67295 -1.9410223467275500e-03</internalNodes>
      <leafValues>
        2.1641314029693604e-01 -6.5625742077827454e-02</leafValues></_>
    <_>
      <internalNodes>
        0 -1 19344 -1.7531675985082984e-03</internalNodes>
      <leafValues>
        -1.2830805778503418e-01 1.2121550738811493e-01</leafValues></_>
    <_>
      <internalNodes>
        0 -1 19987 -2.0784055814146996e-03</internalNodes>
      <leafValues>
        1.8970625102519989e-01 -9.3875743448734283e-02</leafValues></_>
    <_>
      <internalNodes>
        0 -1 13611 -3.4105253871530294e-03</internalNodes>
      <leafValues>
        -3.9746299386024475e-01 4.3811853975057602e-02</leafValues></_>
    <_>
      <internalNodes>
        0 -1 18788 9.9312537349760532e-04</internalNodes>
      <leafValues>
        -8.4487430751323700e-02 1.9258564710617065e-01</leafValues></_>
    <_>
      <internalNodes>
        0 -1 58969 4.3958229944109917e-03</internalNodes>
      <leafValues>
        2.8522837907075882e-02 -5.5571281909942627e-01</leafValues></_>
    <_>
      <internalNodes>
        0 -1 76859 -6.5167190041393042e-04</internalNodes>
      <leafValues>
        -1.5013474225997925e-01 9.2261701822280884e-02</leafValues></_>
    <_>
      <internalNodes>
        0 -1 45802 -4.6061365865170956e-03</internalNodes>
      <leafValues>
        2.5018063187599182e-01 -5.3292028605937958e-02</leafValues></_>
    <_>
      <internalNodes>
        0 -1 45616 1.2238425551913679e-04</internalNodes>
      <leafValues>
        -1.0556232184171677e-01 1.4696045219898224e-01</leafValues></_>
    <_>
      <internalNodes>
        0 -1 68644 3.0452767387032509e-03</internalNodes>
      <leafValues>
        6.2162648886442184e-02 -2.5184586644172668e-01</leafValues></_>
    <_>
      <internalNodes>
        0 -1 48847 2.6940118521451950e-02</internalNodes>
      <leafValues>
        -3.3758390694856644e-02 4.8250550031661987e-01</leafValues></_>
    <_>
      <internalNodes>
        0 -1 42846 -1.8669534474611282e-02</internalNodes>
      <leafValues>
        -4.3055370450019836e-01 3.8366027176380157e-02</leafValues></_>
    <_>
      <internalNodes>
        0 -1 47598 -3.2575824297964573e-04</internalNodes>
      <leafValues>
        1.5315248072147369e-01 -1.1873599886894226e-01</leafValues></_>
    <_>
      <internalNodes>
        0 -1 41759 -2.1511092782020569e-03</internalNodes>
      <leafValues>
        1.5826241672039032e-01 -8.6278416216373444e-02</leafValues></_>
    <_>
      <internalNodes>
        0 -1 62409 4.4885817915201187e-03</internalNodes>
      <leafValues>
        2.8782479465007782e-02 -5.5350482463836670e-01</leafValues></_>
    <_>
      <internalNodes>
        0 -1 20884 -4.9794074147939682e-03</internalNodes>
      <leafValues>
        -5.1329332590103149e-01 2.5191135704517365e-02</leafValues></_>
    <_>
      <internalNodes>
        0 -1 22557 -2.1831429330632091e-04</internalNodes>
      <leafValues>
        1.0813052952289581e-01 -1.3023488223552704e-01</leafValues></_>
    <_>
      <internalNodes>
        0 -1 2279 2.8019133955240250e-02</internalNodes>
      <leafValues>
        -3.1422257423400879e-02 4.7791364789009094e-01</leafValues></_>
    <_>
      <internalNodes>
        0 -1 27672 -2.6284791529178619e-03</internalNodes>
      <leafValues>
        2.5335913896560669e-01 -5.3164783865213394e-02</leafValues></_>
    <_>
      <internalNodes>
        0 -1 69013 5.7981954887509346e-04</internalNodes>
      <leafValues>
        -9.6651837229728699e-02 1.5306824445724487e-01</leafValues></_>
    <_>
      <internalNodes>
        0 -1 14969 1.1181493755429983e-03</internalNodes>
      <leafValues>
        1.0411169379949570e-01 -1.5203772485256195e-01</leafValues></_>
    <_>
      <internalNodes>
        0 -1 50329 -1.4710849523544312e-01</internalNodes>
      <leafValues>
        -6.6614216566085815e-01 2.1793764084577560e-02</leafValues></_>
    <_>
      <internalNodes>
        0 -1 53209 9.6400047186762094e-04</internalNodes>
      <leafValues>
        -9.9656946957111359e-02 1.5894573926925659e-01</leafValues></_>
    <_>
      <internalNodes>
        0 -1 803 -5.7042851112782955e-03</internalNodes>
      <leafValues>
        4.9742484092712402e-01 -3.0814507976174355e-02</leafValues></_>
    <_>
      <internalNodes>
        0 -1 71824 1.3061773777008057e-01</internalNodes>
      <leafValues>
        -2.5854721665382385e-02 5.3683882951736450e-01</leafValues></_>
    <_>
      <internalNodes>
        0 -1 43941 3.8623767904937267e-03</internalNodes>
      <leafValues>
        -8.0714493989944458e-02 1.8375478684902191e-01</leafValues></_>
    <_>
      <internalNodes>
        0 -1 64100 -5.7470691390335560e-03</internalNodes>
      <leafValues>
        -7.9891902208328247e-01 1.9765758886933327e-02</leafValues></_>
    <_>
      <internalNodes>
        0 -1 76562 -9.3550450401380658e-04</internalNodes>
      <leafValues>
        1.5262426435947418e-01 -9.6132308244705200e-02</leafValues></_>
    <_>
      <internalNodes>
        0 -1 45218 1.5721268951892853e-02</internalNodes>
      <leafValues>
        -2.8511244803667068e-02 5.0697469711303711e-01</leafValues></_>
    <_>
      <internalNodes>
        0 -1 75040 1.4111750351730734e-04</internalNodes>
      <leafValues>
        -1.1426132172346115e-01 1.3623704016208649e-01</leafValues></_>
    <_>
      <internalNodes>
        0 -1 71641 1.9958799239248037e-03</internalNodes>
      <leafValues>
        -7.8773431479930878e-02 1.9437785446643829e-01</leafValues></_>
    <_>
      <internalNodes>
        0 -1 68663 1.8711648881435394e-03</internalNodes>
      <leafValues>
        -9.7878500819206238e-02 1.6828949749469757e-01</leafValues></_>
    <_>
      <internalNodes>
        0 -1 50422 5.5845351889729500e-03</internalNodes>
      <leafValues>
        1.9360760226845741e-02 -7.9156589508056641e-01</leafValues></_>
    <_>
      <internalNodes>
        0 -1 64681 -2.4086801335215569e-02</internalNodes>
      <leafValues>
        3.0721172690391541e-01 -4.9461722373962402e-02</leafValues></_>
    <_>
      <internalNodes>
        0 -1 65231 5.6113004684448242e-03</internalNodes>
      <leafValues>
        3.6278914660215378e-02 -4.1149765253067017e-01</leafValues></_>
    <_>
      <internalNodes>
        0 -1 68369 -7.6512717641890049e-03</internalNodes>
      <leafValues>
        2.4872310459613800e-01 -5.8928146958351135e-02</leafValues></_>
    <_>
      <internalNodes>
        0 -1 73430 -7.8722592443227768e-03</internalNodes>
      <leafValues>
        -7.2076791524887085e-01 2.1408637985587120e-02</leafValues></_>
    <_>
      <internalNodes>
        0 -1 14383 4.6430893242359161e-02</internalNodes>
      <leafValues>
        1.9087696447968483e-02 -6.2580263614654541e-01</leafValues></_>
    <_>
      <internalNodes>
        0 -1 33933 4.6366854803636670e-04</internalNodes>
      <leafValues>
        -1.0412368178367615e-01 1.7224007844924927e-01</leafValues></_></weakClassifiers></stage7>
</opencv_storage>
